solver_type L1R_LR
nr_class 2
label 0 1
nr_feature 693
bias -1
w
-1.365263946344283 
-0.6697376900143054 
-0.3038290549253772 
-0.1142550051609484 
-0.1511808717867062 
-0.05979863238057308 
-0.2100453363043922 
-0.2274652247368932 
-0.09789195755328867 
-0.1683615074457878 
-0.02306070539784292 
-0.07387795094285944 
-0.2274908633707229 
-0.1765697888299087 
-0.1516936652897438 
-0.2691573151156358 
-0.2086831415370363 
-0.2286623246122617 
-0.1363325085263039 
-0.1003098003304837 
-0.07400453389750183 
-0.5503714679282201 
-0.1693860621479288 
-0.6116386953031379 
-1.633314405683252 
-0.1327212362414234 
-1.36616943948082 
-0.1398165029681511 
0.0001922475257934348 
-0.2925869838354441 
-0.1497668114760785 
-0.1781673052342952 
-0.2663869930786082 
-0.5835398040892699 
-0.2103806202229483 
-0.05016271026754761 
-0.005113478301624647 
0 
0 
0 
0 
0 
0 
0 
0 
0 
0 
0 
0 
0 
0 
0 
0 
0 
0 
0 
0 
0 
0 
0 
0 
0 
0 
0 
0 
0 
0 
0 
0 
0 
0 
0 
0 
0 
0 
0 
0 
0 
0 
0 
0 
0 
0 
0 
0 
0 
0 
0 
0 
0 
0 
0 
0 
0 
0 
0 
0 
0 
0 
0 
0 
0 
0 
0 
0 
0 
0 
0 
0 
0 
0 
0 
0 
0 
0 
0 
0 
0 
0 
0 
-0.4364884403859629 
0 
0 
0 
-0.4439075200629194 
0 
0 
-0.628614263706086 
0 
0 
-0.5061066832292465 
0 
0 
0 
0 
0 
0 
0 
0 
0 
0 
0 
0 
0 
0 
0 
0 
0 
0 
0 
0 
0 
0 
0 
0 
0 
0 
0 
0 
0 
0 
0 
-0.2887731837374337 
0 
0 
0 
0 
-0.6932989830515626 
0 
0 
0 
0 
0 
0 
0 
0 
0 
0 
0 
0 
0 
0 
0 
0 
0 
0 
-1.73852725492548 
0 
0 
0 
0 
-1.651491824133865 
0 
0 
0 
0 
0 
-0.4406160099314799 
0 
0 
0 
0 
0 
0 
0 
0 
0 
0 
0 
0 
0 
0 
0 
0 
0 
0 
0 
0 
0 
0 
0 
0 
0 
0 
0 
0 
0 
0 
0 
0 
0 
0 
0 
0 
0 
0 
0 
0 
0 
0 
0 
0 
0 
0 
0 
0 
0 
0 
0 
0 
0 
0 
0 
0 
0 
0 
-0.8866365562556084 
0 
0 
0 
0 
0 
0 
0 
0 
0 
0 
0 
0 
0 
0 
0 
0 
0 
-1.126775082790033 
0 
0 
0 
0 
0 
0 
0 
0 
0 
0 
0 
0 
0 
0 
0 
0 
0 
0 
0 
0 
0 
0 
0 
0 
0 
0 
0 
0 
0 
0 
0 
0 
0 
0 
0 
0 
0 
0 
0 
0 
0 
0 
0 
0 
0 
0 
0 
0 
0 
0 
0 
0 
0 
0 
0 
-1.118815855519972 
0 
0 
0 
-0.01843985046991052 
0 
0 
0 
0 
0 
0 
0 
0 
0 
0 
0 
0 
0 
0 
-0.438096868914961 
0 
0 
0 
0 
0 
0 
0 
0 
0 
0 
0 
0 
0 
0 
0 
0 
0 
0 
0 
-0.9885973874578424 
0 
0 
0 
0 
0 
0 
0 
0 
0 
0 
0 
-1.562754993567846 
0 
0 
0 
0 
0 
0 
0 
0 
0 
0 
0 
0 
0 
0 
0 
-0.6173773422992874 
0 
0 
0 
0 
0 
0 
0 
0 
0 
0 
0 
0 
0 
0 
0 
0 
0 
0 
0 
0 
0 
0 
0 
0 
0 
0 
0 
0 
0 
0 
0 
0 
0 
0 
0 
0 
0 
0 
0 
0 
0 
0 
0 
0 
0 
0 
0 
0 
0 
0 
-0.6318334980314048 
0 
0 
-0.7624799113328139 
0 
0 
0 
0 
0 
0 
0 
0 
0 
0 
0 
0 
-0.7749760457338204 
0 
0 
0 
0 
0 
0 
0 
0 
0 
0 
0 
0 
0 
0 
-0.2316633831662086 
-0.4091961383233218 
0 
0 
0 
0 
0 
0 
0 
0 
0 
0 
0 
-1.343917410190269 
0 
-3.993636247622253 
0 
0 
0 
0 
-0.4641430699083194 
-0.9477764378590582 
-1.219757145142337 
0 
0 
0 
-1.509540799658205 
0 
-0.8817099553629897 
0 
-0.5272858442127378 
-0.2567076005207479 
0 
0 
0 
-1.361611611912788 
0 
-1.459729295564668 
0 
0 
0 
0 
0 
-0.9562435597574609 
0 
-0.9078544765585154 
0 
0 
0 
0 
0 
0 
0 
0 
0 
-0.8936934423807971 
0 
0 
0 
0 
0 
0 
0 
0 
0 
0 
0 
0 
0 
0 
0 
0 
0 
0 
0 
0 
0 
0 
0 
0 
0 
0 
0 
0 
0 
0 
0 
0 
0 
0 
0 
0 
0 
0 
0 
0 
0 
0 
0 
0 
0 
0 
0 
0 
0 
0 
0 
-2.370980473978975 
0 
0 
0 
0 
0 
0 
0 
0 
0 
0 
0 
0 
0 
0 
0 
0 
0 
0 
0 
0 
0 
0 
0 
0 
0 
0 
0 
0 
0 
0 
0 
0 
0 
0 
0 
0 
0 
0 
0 
0 
0 
0 
-1.333051976106903 
0 
0 
0 
0 
0 
0 
0 
0 
0 
0 
0 
0 
0 
0 
0 
0 
0 
0 
0 
0 
0 
0 
0 
0 
-2.302705438350956 
0 
0 
0 
0 
0 
0 
0 
0 
0 
0 
0 
0 
0 
0 
0 
0 
0 
0 
0 
0 
0 
0 
0 
0 
0 
0 
0 
0 
0 
0 
0 
0 
0 
0 
0 
0 
0 
0 
